{
  "kld_loss": [
    153.33715133666993,
    239.0959686279297,
    301.9704132080078,
    486.86988830566406,
    981.4869079589844,
    1942.7725463867187,
    3269.4231201171874,
    3845.3211669921875,
    3410.630078125,
    3086.0436767578126,
    2785.578515625,
    2322.5995849609376,
    1721.20859375,
    1298.7753173828125,
    1046.488525390625,
    815.5787780761718,
    728.9964050292969,
    665.2856262207031,
    550.044775390625,
    487.5031005859375,
    447.53407592773436,
    451.62224731445315,
    429.5667388916016,
    418.8297454833984,
    412.7428924560547,
    407.13287353515625,
    400.5760559082031,
    405.2677062988281,
    392.53685302734374,
    392.4408416748047,
    385.1450958251953,
    388.0726013183594,
    381.65227661132815,
    383.88197021484376,
    378.5747528076172,
    383.7776123046875,
    377.5471466064453,
    389.68731384277345,
    380.04832763671874,
    388.76763916015625,
    386.83326110839846,
    387.50938415527344,
    392.37331237792966,
    388.71515502929685,
    403.1950317382813,
    393.6840484619141,
    406.0080078125,
    399.15216064453125,
    411.23659362792966,
    405.28753967285155,
    419.4286163330078,
    412.6436340332031,
    424.22100524902345,
    419.3974639892578,
    436.0606353759766,
    424.91539001464844,
    447.2240478515625,
    433.64430847167966,
    462.5187194824219,
    441.8714294433594,
    459.80791931152345,
    447.0819885253906,
    481.08990173339845,
    453.06928100585935,
    499.92498168945315,
    463.6646697998047,
    522.2229095458985,
    475.56096801757815,
    548.709619140625,
    493.68397216796876,
    576.8514892578125,
    514.011361694336,
    564.4620697021485,
    511.6190460205078,
    558.7466522216797,
    521.4721282958984,
    548.7898071289062,
    522.2494506835938,
    568.2722961425782,
    531.4835052490234,
    614.5643981933594,
    550.0554443359375,
    647.3829956054688,
    562.2325408935546,
    674.4144561767578,
    569.491943359375,
    620.5177124023437,
    572.544400024414,
    623.5560791015625,
    580.9414825439453,
    643.2879699707031,
    592.613232421875,
    662.1461059570313,
    597.8102996826171,
    696.932861328125,
    617.2220672607422,
    761.4864288330078,
    666.0278930664062,
    785.6518463134765,
    677.196728515625,
    643.2274688720703,
    703.5351165771484,
    644.7379028320313,
    674.9252990722656,
    662.9082946777344,
    658.521630859375,
    704.7414123535157,
    663.8078369140625,
    729.7197540283203,
    667.9055603027343,
    796.8130340576172,
    700.4538757324219,
    827.9046112060547,
    701.8305633544921,
    826.2867797851562,
    716.8260559082031,
    876.0051300048829,
    758.9294036865234,
    912.5068054199219,
    734.7010162353515,
    792.8232360839844,
    732.9473754882813,
    829.9936157226563,
    735.6306823730469,
    875.9289520263671,
    773.3144012451172,
    868.9432373046875,
    763.0777984619141,
    912.9628814697265,
    785.59794921875,
    990.8076568603516
  ],
  "nll_loss": [
    58362.1234375,
    56614.16875,
    55015.940625,
    53233.761328125,
    50976.146875,
    48351.2703125,
    45790.1984375,
    44429.209765625,
    44335.130078125,
    44265.2875,
    43904.721875,
    43500.372265625,
    43443.2640625,
    43587.485546875,
    43783.24140625,
    43983.90859375,
    44062.00703125,
    44150.71875,
    44185.471875,
    44222.93671875,
    44266.480859375,
    44261.681640625,
    44279.085546875,
    44287.166796875,
    44288.061328125,
    44304.869921875,
    44298.332421875,
    44307.9140625,
    44310.698828125,
    44311.570703125,
    44317.41875,
    44318.878515625,
    44323.733984375,
    44325.430859375,
    44332.1703125,
    44326.955859375,
    44328.37734375,
    44332.2171875,
    44333.682421875,
    44334.184765625,
    44333.187109375,
    44327.995703125,
    44334.728515625,
    44337.138671875,
    44329.86171875,
    44332.737109375,
    44336.5,
    44334.91328125,
    44331.787890625,
    44340.823046875,
    44331.350390625,
    44332.447265625,
    44332.513671875,
    44330.15078125,
    44331.503125,
    44336.617578125,
    44327.690625,
    44329.84609375,
    44327.6234375,
    44329.0640625,
    44328.608984375,
    44325.447265625,
    44328.585546875,
    44323.978125,
    44324.308203125,
    44321.659765625,
    44324.597265625,
    44326.211328125,
    44324.36015625,
    44321.458984375,
    44320.65625,
    44325.871875,
    44320.84453125,
    44319.966796875,
    44320.389453125,
    44319.8765625,
    44318.29296875,
    44323.44296875,
    44313.46171875,
    44316.775390625,
    44314.948828125,
    44317.350390625,
    44314.354296875,
    44317.578125,
    44314.53671875,
    44314.58125,
    44312.745703125,
    44315.065625,
    44311.5375,
    44311.44609375,
    44308.95,
    44309.765625,
    44310.25625,
    44307.595703125,
    44308.634375,
    44307.274609375,
    44307.176171875,
    44302.897265625,
    44303.77265625,
    44308.3125,
    44310.19921875,
    44306.17421875,
    44301.962890625,
    44305.05234375,
    44301.17578125,
    44302.701953125,
    44300.009765625,
    44301.84296875,
    44298.1421875,
    44301.203125,
    44297.0796875,
    44299.86328125,
    44297.172265625,
    44299.21015625,
    44297.74609375,
    44297.640625,
    44297.111328125,
    44295.483203125,
    44295.934375,
    44296.99765625,
    44292.3703125,
    44290.683984375,
    44293.74765625,
    44289.901171875,
    44289.89375,
    44293.374609375,
    44291.615234375,
    44288.932421875,
    44287.880078125,
    44292.23671875,
    44286.96171875
  ],
  "ent_loss": [
    3495.5260498046873,
    3365.8114990234376,
    3230.1532958984376,
    3117.334228515625,
    3046.7279296875,
    2998.9943603515626,
    2973.5042236328127,
    2803.647802734375,
    2378.8417724609376,
    1981.310888671875,
    1641.8408447265624,
    1380.8070190429687,
    1033.220703125,
    569.6855255126953,
    -58.3581127166748,
    -694.514535522461,
    -1157.5384399414063,
    -1528.8790283203125,
    -1833.7296020507813,
    -2089.4002197265627,
    -2319.1415771484376,
    -2507.52255859375,
    -2658.93759765625,
    -2796.4593994140623,
    -2917.0991943359377,
    -3026.7207763671877,
    -3128.8088623046874,
    -3239.2098876953123,
    -3340.586767578125,
    -3433.69853515625,
    -3520.318212890625,
    -3605.5844970703124,
    -3685.491357421875,
    -3762.86904296875,
    -3836.1177978515625,
    -3911.1773681640625,
    -3980.00478515625,
    -4047.069189453125,
    -4112.028979492187,
    -4177.429443359375,
    -4237.4654296875,
    -4297.485302734375,
    -4354.6923828125,
    -4411.935498046875,
    -4466.918701171875,
    -4521.55791015625,
    -4572.033935546875,
    -4622.856396484375,
    -4672.9990234375,
    -4723.742333984375,
    -4770.292431640625,
    -4816.768408203125,
    -4860.172998046875,
    -4904.35537109375,
    -4946.703759765625,
    -4990.373046875,
    -5031.726953125,
    -5073.999365234375,
    -5113.096923828125,
    -5154.179443359375,
    -5192.1201171875,
    -5230.019091796875,
    -5266.28173828125,
    -5304.42646484375,
    -5340.85,
    -5379.16259765625,
    -5415.22021484375,
    -5452.155712890625,
    -5488.596630859375,
    -5527.941162109375,
    -5565.635205078125,
    -5606.544287109375,
    -5644.13564453125,
    -5680.0224609375,
    -5711.4583984375,
    -5743.55087890625,
    -5772.106640625,
    -5800.23076171875,
    -5826.24287109375,
    -5854.096533203125,
    -5881.966796875,
    -5911.577392578125,
    -5941.123681640625,
    -5972.692919921875,
    -6002.37138671875,
    -6033.0509765625,
    -6059.702001953125,
    -6084.794091796875,
    -6107.098583984375,
    -6131.235986328125,
    -6153.6826171875,
    -6176.9015625,
    -6199.127197265625,
    -6223.31162109375,
    -6245.938720703125,
    -6269.945849609375,
    -6293.91259765625,
    -6321.808154296875,
    -6351.433642578125,
    -6380.3607421875,
    -6400.7046875,
    -6420.85908203125,
    -6438.50947265625,
    -6456.912451171875,
    -6473.4001953125,
    -6491.34794921875,
    -6508.039306640625,
    -6526.223974609375,
    -6542.73095703125,
    -6560.83486328125,
    -6577.949072265625,
    -6598.656787109375,
    -6617.932421875,
    -6638.634912109375,
    -6656.77314453125,
    -6676.7328125,
    -6695.196923828125,
    -6716.444775390625,
    -6738.425146484375,
    -6759.958740234375,
    -6776.1646484375,
    -6791.52919921875,
    -6804.6244140625,
    -6820.291552734375,
    -6834.99775390625,
    -6851.860400390625,
    -6866.552880859375,
    -6882.2158203125,
    -6897.197509765625,
    -6913.877880859375,
    -6930.173681640625
  ],
  "rollout_loss": [
    59527.13203125,
    58580.898046875,
    57387.978515625,
    56370.181640625,
    55844.390625,
    55319.107421875,
    55000.18671875,
    54171.628515625,
    52960.98671875,
    51905.039453125,
    51044.061328125,
    49952.353125,
    49019.5265625,
    48928.791015625,
    48368.494140625,
    47984.508984375,
    47808.799609375,
    47798.41953125,
    47814.003125,
    47629.88671875,
    47683.52890625,
    47646.571484375,
    47544.83984375,
    47528.287109375,
    47533.828515625,
    47473.41015625,
    47409.505859375,
    47486.480859375,
    47413.739453125,
    47422.041015625,
    47379.66171875,
    47447.87734375,
    47349.12109375,
    47377.91796875,
    47293.71796875,
    47336.266796875,
    47347.015234375,
    47331.715234375,
    47351.717578125,
    47378.894921875,
    47276.21640625,
    47334.046875,
    47334.303125,
    47369.62265625,
    47320.86796875,
    47294.689453125,
    47342.545703125,
    47338.15859375,
    47316.62109375,
    47366.9453125,
    47317.464453125,
    47342.961328125,
    47372.721875,
    47357.065234375,
    47326.769921875,
    47280.005078125,
    47284.359765625,
    47332.738671875,
    47315.691015625,
    47291.41328125,
    47284.549609375,
    47299.1359375,
    47343.81953125,
    47361.094921875,
    47309.746875,
    47314.24609375,
    47276.458203125,
    47346.35625,
    47294.567578125,
    47292.60234375,
    47296.13125,
    47303.209375,
    47230.3328125,
    47244.85,
    47243.242578125,
    47295.485546875,
    47289.694921875,
    47303.039453125,
    47273.59140625,
    47268.146875,
    47262.033984375,
    47245.032421875,
    47253.9703125,
    47282.848828125,
    47299.32890625,
    47267.20234375,
    47267.53984375,
    47228.4546875,
    47269.0359375,
    47247.730078125,
    47290.758203125,
    47291.20859375,
    47225.114453125,
    47264.68515625,
    47251.7859375,
    47268.065234375,
    47262.607421875,
    47225.895703125,
    47243.219140625,
    47292.23046875,
    47269.234765625,
    47233.360546875,
    47251.45390625,
    47265.084765625,
    47264.016796875,
    47237.129296875,
    47276.7421875,
    47239.46328125,
    47225.024609375,
    47284.52265625,
    47264.080859375,
    47275.331640625,
    47280.01796875,
    47240.212890625,
    47217.174609375,
    47256.051171875,
    47218.31796875,
    47230.08046875,
    47278.826953125,
    47252.89921875,
    47217.187890625,
    47235.00625,
    47248.778125,
    47247.97734375,
    47340.861328125,
    47282.9875,
    47232.2484375,
    47301.48515625,
    47320.701171875,
    47227.7703125,
    47326.272265625
  ],
  "rollout_loss_weighted": [
    0.0,
    0.0,
    0.0,
    0.0,
    0.0,
    0.0,
    0.0,
    0.0,
    0.0,
    0.0,
    0.0,
    0.0,
    0.0,
    0.0,
    0.0,
    0.0,
    0.0,
    0.0,
    0.0,
    0.0,
    0.0,
    0.0,
    0.0,
    0.0,
    0.0,
    0.0,
    0.0,
    0.0,
    0.0,
    0.0,
    0.0,
    0.0,
    0.0,
    0.0,
    0.0,
    0.0,
    0.0,
    0.0,
    0.0,
    0.0,
    0.0,
    0.0,
    0.0,
    0.0,
    0.0,
    0.0,
    0.0,
    0.0,
    0.0,
    0.0,
    0.0,
    0.0,
    0.0,
    0.0,
    0.0,
    0.0,
    0.0,
    0.0,
    0.0,
    0.0,
    0.0,
    0.0,
    0.0,
    0.0,
    0.0,
    0.0,
    0.0,
    0.0,
    0.0,
    0.0,
    0.0,
    0.0,
    0.0,
    0.0,
    0.0,
    0.0,
    0.0,
    0.0,
    0.0,
    0.0,
    0.0,
    0.0,
    0.0,
    0.0,
    0.0,
    0.0,
    0.0,
    0.0,
    0.0,
    0.0,
    0.0,
    0.0,
    0.0,
    0.0,
    0.0,
    0.0,
    0.0,
    0.0,
    0.0,
    0.0,
    0.0,
    0.0,
    0.0,
    0.0,
    0.0,
    0.0,
    0.0,
    0.0,
    0.0,
    0.0,
    0.0,
    0.0,
    0.0,
    0.0,
    0.0,
    0.0,
    0.0,
    0.0,
    0.0,
    0.0,
    0.0,
    0.0,
    0.0,
    0.0,
    0.0,
    0.0,
    0.0,
    0.0,
    0.0,
    0.0,
    0.0
  ]
}