{
  "kld_loss": [
    520.3164703369141,
    933.4954528808594,
    1820.21630859375,
    2923.40517578125,
    4434.465771484375,
    6308.388330078125,
    8835.10888671875,
    11949.1126953125,
    15053.48720703125,
    19717.59140625,
    26717.537890625,
    38598.3392578125,
    63673.92109375,
    108582.6,
    194945.3828125,
    269978.809375,
    291591.2890625,
    276158.2296875,
    304700.1796875,
    400884.3,
    452186.55,
    503778.653125,
    515852.459375,
    498746.365625,
    480825.740625,
    455103.50625,
    430864.115625,
    409811.546875,
    378188.246875,
    371326.078125,
    360160.909375,
    345766.39375,
    332462.790625,
    327611.1796875,
    314505.315625,
    306326.2421875,
    298056.24375,
    291280.8296875,
    288193.946875,
    278913.0953125,
    273554.55625,
    272351.8625,
    272547.5671875,
    270834.0703125,
    267657.80625,
    271285.0671875,
    263006.7015625,
    270080.790625,
    260475.2734375,
    266872.9109375,
    262988.9359375,
    258974.184375,
    258896.0953125,
    250555.8625,
    246727.3828125,
    242967.740625,
    244585.9078125,
    249002.959375,
    242915.7921875,
    244712.5703125,
    240644.71875,
    236230.9265625,
    233098.01875,
    232587.51875,
    229683.3859375,
    227582.5796875,
    232863.453125,
    228901.5984375,
    227953.284375,
    231731.7984375,
    232117.6296875,
    231141.8671875,
    230588.315625,
    230097.884375,
    227381.546875,
    227509.01875,
    225907.0453125,
    224396.0828125,
    222529.240625,
    224252.6171875,
    220200.39375,
    218527.3390625,
    212512.0640625,
    218220.5328125,
    214697.440625,
    211992.675,
    213541.5203125,
    214085.4421875,
    209251.2171875,
    212880.1703125,
    205853.378125,
    208040.54375,
    208965.5390625,
    205187.984375,
    205869.934375,
    199231.96875,
    200812.353125,
    196848.409375,
    195725.446875,
    196862.896875,
    195524.234375,
    199262.6453125,
    199799.2953125,
    197971.9828125,
    194326.234375,
    192723.1703125,
    192469.053125,
    189719.33125,
    189650.01875,
    187721.2296875,
    186351.0734375,
    187375.5546875,
    188337.90625,
    188362.4828125,
    185813.221875,
    184878.490625,
    183125.6296875,
    179745.7453125,
    179129.55625,
    178011.88125,
    177651.7390625,
    181179.6078125,
    178897.9671875,
    175914.0328125,
    175892.4828125,
    176824.99375,
    175043.0453125,
    175677.7140625,
    174208.4765625,
    169490.525,
    167847.4109375,
    169707.8109375,
    170142.6046875,
    163610.9453125,
    162333.4265625,
    163337.8515625,
    164058.003125,
    162921.5609375,
    162591.040625,
    163084.0046875,
    161523.9671875,
    159615.6140625,
    158102.4859375,
    156858.6625,
    155969.465625,
    154518.584375,
    153920.23125,
    152670.08125,
    146694.1625,
    146675.2359375,
    146980.8484375,
    146628.4203125,
    145948.059375,
    145910.859375,
    145932.6328125,
    148843.6453125,
    146510.8109375,
    144056.6375,
    143564.721875,
    143044.165625,
    143443.13125
  ],
  "nll_loss": [
    162933104.0,
    154733262.4,
    147907060.8,
    141946168.0,
    136594037.6,
    131698541.6,
    125242831.2,
    120054687.2,
    112945090.4,
    104433706.4,
    95393420.0,
    83905629.6,
    72169070.0,
    60045358.4,
    47769283.6,
    36689032.8,
    24738668.6,
    14448287.6,
    7164650.05,
    3088349.75,
    1480432.025,
    816009.88125,
    595907.059375,
    478228.646875,
    403195.45625,
    385367.94375,
    299843.0125,
    250729.0421875,
    233104.2484375,
    187175.5609375,
    172954.6484375,
    169077.6921875,
    154018.3984375,
    129997.8390625,
    112225.3515625,
    101009.26640625,
    93959.48984375,
    89031.0390625,
    76744.569140625,
    74090.31171875,
    69622.266015625,
    59965.966015625,
    62798.89609375,
    53825.376953125,
    54731.108203125,
    42887.275390625,
    48729.866796875,
    37073.547265625,
    40940.7888671875,
    41227.7232421875,
    32692.68828125,
    30072.10224609375,
    23851.25380859375,
    22887.94990234375,
    18907.04599609375,
    20513.606567382812,
    17826.70009765625,
    15909.442114257812,
    15579.909814453125,
    7218.385829925537,
    6552.396081542969,
    7532.652819824219,
    2744.432501220703,
    -2290.2442138671877,
    -2006.4234466552734,
    -2046.5102783203124,
    -8902.526123046875,
    -7889.3105743408205,
    -6085.1588134765625,
    -10395.60928955078,
    -8876.02646484375,
    -8654.118603515624,
    -9177.846508789062,
    -11080.31650390625,
    -12755.520446777344,
    -16780.8052734375,
    -18007.90390625,
    -20706.31982421875,
    -16434.97666015625,
    -22578.6927734375,
    -19936.293041992187,
    -23661.32373046875,
    -18805.1236328125,
    -26489.519091796876,
    -24993.707373046876,
    -21611.384228515624,
    -21858.973876953125,
    -23147.09921875,
    -21753.05068359375,
    -31601.9681640625,
    -24438.0267578125,
    -31532.6578125,
    -30320.7744140625,
    -30567.5326171875,
    -34089.8720703125,
    -32990.7998046875,
    -37428.378515625,
    -36662.534375,
    -36366.6189453125,
    -38601.01875,
    -29434.9220703125,
    -33815.7181640625,
    -35523.1537109375,
    -26854.10743408203,
    -40132.2541015625,
    -37548.8052734375,
    -41323.18515625,
    -37799.3447265625,
    -39876.47578125,
    -39315.2572265625,
    -40087.4015625,
    -40728.774609375,
    -39989.830859375,
    -40802.17734375,
    -38927.3986328125,
    -39850.8013671875,
    -44181.975390625,
    -37075.003125,
    -40467.6109375,
    -40173.64375,
    -38372.073046875,
    -41818.837890625,
    -43372.73125,
    -40161.36875,
    -42936.314453125,
    -42819.15703125,
    -35101.338671875,
    -38836.0185546875,
    -38214.0818359375,
    -43613.36796875,
    -43838.520703125,
    -38113.7859375,
    -30363.7927734375,
    -43198.17109375,
    -46377.112890625,
    -46411.817578125,
    -46160.18203125,
    -45426.473828125,
    -43190.8171875,
    -45497.35625,
    -45132.0734375,
    -43987.52890625,
    -43436.840234375,
    -45472.6015625,
    -45721.41796875,
    -44308.866796875,
    -45232.594140625,
    -47355.839453125,
    -45406.3984375,
    -44559.77109375,
    -44077.080859375,
    -44773.341015625,
    -42650.023828125,
    -45717.1765625,
    -45100.6578125,
    -25705.933172607423,
    -40492.070703125,
    -47358.7109375,
    -47354.16796875,
    -46256.4046875,
    -46561.81953125
  ],
  "ent_loss": [
    3027.8828857421877,
    2870.4128662109374,
    2701.441455078125,
    2520.4771240234377,
    2323.007275390625,
    2117.61455078125,
    1901.7265502929688,
    1690.0946655273438,
    1495.2273315429688,
    1278.3612548828125,
    1034.5309143066406,
    761.7117736816406,
    399.9173324584961,
    47.528525066375735,
    -329.8312957763672,
    -623.2699737548828,
    -970.1150634765625,
    -1392.7839721679688,
    -1888.4888305664062,
    -2420.41171875,
    -2861.5694580078125,
    -3226.1120849609374,
    -3478.99560546875,
    -3666.7247802734373,
    -3828.651904296875,
    -3965.8958251953127,
    -4056.9394775390624,
    -4145.86083984375,
    -4213.160913085938,
    -4285.916430664062,
    -4335.2796875,
    -4391.932421875,
    -4427.39638671875,
    -4501.73564453125,
    -4563.852734375,
    -4622.44345703125,
    -4676.70068359375,
    -4725.298876953125,
    -4766.211572265625,
    -4815.550732421875,
    -4860.702197265625,
    -4899.43564453125,
    -4944.142138671875,
    -4971.301416015625,
    -5016.375146484375,
    -5056.15439453125,
    -5077.014990234375,
    -5127.266796875,
    -5151.2693359375,
    -5170.2095703125,
    -5201.788134765625,
    -5197.292041015625,
    -5229.94228515625,
    -5249.04755859375,
    -5269.532421875,
    -5291.440966796875,
    -5313.967529296875,
    -5334.091064453125,
    -5353.2443359375,
    -5378.681591796875,
    -5408.112353515625,
    -5420.663232421875,
    -5432.389501953125,
    -5455.80966796875,
    -5477.14150390625,
    -5488.414892578125,
    -5504.191015625,
    -5509.611279296875,
    -5522.388037109375,
    -5533.7384765625,
    -5549.407568359375,
    -5550.345556640625,
    -5548.329150390625,
    -5558.107763671875,
    -5562.9140625,
    -5583.69384765625,
    -5604.884326171875,
    -5621.023486328125,
    -5634.715576171875,
    -5643.214794921875,
    -5652.600341796875,
    -5649.48720703125,
    -5646.297998046875,
    -5654.1724609375,
    -5660.0583984375,
    -5656.27158203125,
    -5671.80986328125,
    -5668.121630859375,
    -5671.72958984375,
    -5685.876611328125,
    -5700.959033203125,
    -5710.048779296875,
    -5704.155810546875,
    -5707.707177734375,
    -5703.078662109375,
    -5702.310009765625,
    -5707.10341796875,
    -5717.599072265625,
    -5723.799462890625,
    -5738.6580078125,
    -5756.6939453125,
    -5768.103173828125,
    -5766.53330078125,
    -5770.83056640625,
    -5765.555029296875,
    -5767.40732421875,
    -5771.21845703125,
    -5776.739306640625,
    -5783.84033203125,
    -5800.178759765625,
    -5807.698486328125,
    -5812.3216796875,
    -5817.658056640625,
    -5812.427490234375,
    -5810.636279296875,
    -5805.343798828125,
    -5797.996484375,
    -5797.090185546875,
    -5792.82666015625,
    -5794.18544921875,
    -5801.199267578125,
    -5801.81318359375,
    -5803.3201171875,
    -5801.067236328125,
    -5795.63828125,
    -5795.2923828125,
    -5801.897607421875,
    -5807.247802734375,
    -5805.132568359375,
    -5793.662060546875,
    -5789.20703125,
    -5792.87998046875,
    -5793.318603515625,
    -5793.536669921875,
    -5803.298388671875,
    -5814.698193359375,
    -5814.15595703125,
    -5813.6416015625,
    -5808.434619140625,
    -5803.81357421875,
    -5797.57373046875,
    -5788.34970703125,
    -5775.937451171875,
    -5768.588818359375,
    -5765.8767578125,
    -5767.14638671875,
    -5764.184326171875,
    -5759.870751953125,
    -5742.645166015625,
    -5731.78623046875,
    -5735.22529296875,
    -5738.025439453125,
    -5738.71533203125,
    -5745.757373046875,
    -5752.10458984375,
    -5761.92080078125,
    -5768.328857421875,
    -5767.8947265625,
    -5777.024658203125,
    -5778.126953125,
    -5778.614013671875
  ],
  "rollout_loss": [
    143664478.4,
    134126393.6,
    125084824.8,
    118027369.6,
    111303614.4,
    105016536.0,
    98790012.0,
    93127492.8,
    87706134.4,
    82428980.0,
    77467364.4,
    72726647.6,
    67886138.0,
    62701138.8,
    57018502.0,
    50339642.0,
    43396917.6,
    37104222.0,
    32538969.4,
    29126383.8,
    26580866.0,
    24552121.8,
    23012497.8,
    21668961.2,
    20844618.0,
    19964484.6,
    19430106.0,
    19119046.9,
    18515876.2,
    18161414.6,
    17948931.0,
    17722242.6,
    17299140.1,
    17095628.9,
    16586275.5,
    16334888.2,
    16083516.5,
    15834624.9,
    15563930.2,
    15366698.3,
    15173148.2,
    15078123.5,
    15000979.3,
    14644285.1,
    14653263.0,
    14362198.7,
    14218387.6,
    14130316.6,
    14019024.3,
    13922725.5,
    13685300.5,
    13728016.8,
    13323192.0,
    13138692.3,
    13043495.1,
    13004214.2,
    12826878.0,
    12840166.6,
    12488903.2,
    12391936.6,
    12224833.3,
    12029427.7,
    11899993.3,
    11672513.0,
    11550559.2,
    11541601.2,
    11507388.8,
    11366296.2,
    11375444.1,
    11324380.4,
    11289439.4,
    11124866.5,
    11202547.8,
    10947212.8,
    10870920.0,
    10760308.5,
    10603012.8,
    10530995.0,
    10401682.1,
    10293831.1,
    10141178.7,
    10025373.6,
    10099647.3,
    10005182.4,
    10011640.7,
    9920889.5,
    9758138.2,
    9528117.3,
    9497954.5,
    9405352.8,
    9511242.9,
    9296882.0,
    9285792.2,
    9115859.5,
    8946600.1,
    8860481.8,
    8762355.65,
    8692707.95,
    8554056.0,
    8522659.75,
    8422383.15,
    8361432.3,
    8346586.0,
    8297717.95,
    8137607.25,
    8266930.55,
    7963654.3,
    7856973.1,
    7798462.3,
    7694647.5,
    7621238.7,
    7707171.9,
    7977417.55,
    7538937.2,
    7458055.7,
    7353807.2,
    7237215.45,
    7202888.15,
    7168504.9,
    7080352.5,
    7053154.3,
    7130580.9,
    6925457.45,
    6897916.75,
    6802812.95,
    6728499.0,
    6639525.75,
    6641087.25,
    6481557.25,
    6498154.4,
    6470066.2,
    6358407.65,
    6235589.8,
    6206001.55,
    6085316.8,
    6121496.4,
    6061563.8,
    6082291.35,
    5912621.8,
    6177607.3,
    5917552.2,
    5790717.95,
    5798147.1,
    5679509.05,
    5658526.05,
    5574758.2,
    5507760.7,
    5399342.35,
    5425446.2,
    5432145.25,
    5402537.8,
    5219608.5,
    5211223.95,
    5170254.8,
    5121735.7,
    5115610.0,
    5007461.15,
    4956919.15,
    4949752.35,
    4911914.65,
    4833435.05
  ],
  "rollout_loss_weighted": [
    143664478.4,
    134126393.6,
    125084824.8,
    118027369.6,
    111303614.4,
    105016536.0,
    98790012.0,
    93127492.8,
    87706134.4,
    82428980.0,
    77467364.4,
    72726647.6,
    67886138.0,
    62701138.8,
    57018502.0,
    50339642.0,
    43396917.6,
    37104222.0,
    32538969.4,
    29126383.8,
    26580866.0,
    24552121.8,
    23012497.8,
    21668961.2,
    20844618.0,
    19964484.6,
    19430106.0,
    19119046.9,
    18515876.2,
    18161414.6,
    17948931.0,
    17722242.6,
    17299140.1,
    17095628.9,
    16586275.5,
    16334888.2,
    16083516.5,
    15834624.9,
    15563930.2,
    15366698.3,
    15173148.2,
    15078123.5,
    15000979.3,
    14644285.1,
    14653263.0,
    14362198.7,
    14218387.6,
    14130316.6,
    14019024.3,
    13922725.5,
    13685300.5,
    13728016.8,
    13323192.0,
    13138692.3,
    13043495.1,
    13004214.2,
    12826878.0,
    12840166.6,
    12488903.2,
    12391936.6,
    12224833.3,
    12029427.7,
    11899993.3,
    11672513.0,
    11550559.2,
    11541601.2,
    11507388.8,
    11366296.2,
    11375444.1,
    11324380.4,
    11289439.4,
    11124866.5,
    11202547.8,
    10947212.8,
    10870920.0,
    10760308.5,
    10603012.8,
    10530995.0,
    10401682.1,
    10293831.1,
    10141178.7,
    10025373.6,
    10099647.3,
    10005182.4,
    10011640.7,
    9920889.5,
    9758138.2,
    9528117.3,
    9497954.5,
    9405352.8,
    9511242.9,
    9296882.0,
    9285792.2,
    9115859.5,
    8946600.1,
    8860481.8,
    8762355.65,
    8692707.95,
    8554056.0,
    8522659.75,
    8422383.15,
    8361432.3,
    8346586.0,
    8297717.95,
    8137607.25,
    8266930.55,
    7963654.3,
    7856973.1,
    7798462.3,
    7694647.5,
    7621238.7,
    7707171.9,
    7977417.55,
    7538937.2,
    7458055.7,
    7353807.2,
    7237215.45,
    7202888.15,
    7168504.9,
    7080352.5,
    7053154.3,
    7130580.9,
    6925457.45,
    6897916.75,
    6802812.95,
    6728499.0,
    6639525.75,
    6641087.25,
    6481557.25,
    6498154.4,
    6470066.2,
    6358407.65,
    6235589.8,
    6206001.55,
    6085316.8,
    6121496.4,
    6061563.8,
    6082291.35,
    5912621.8,
    6177607.3,
    5917552.2,
    5790717.95,
    5798147.1,
    5679509.05,
    5658526.05,
    5574758.2,
    5507760.7,
    5399342.35,
    5425446.2,
    5432145.25,
    5402537.8,
    5219608.5,
    5211223.95,
    5170254.8,
    5121735.7,
    5115610.0,
    5007461.15,
    4956919.15,
    4949752.35,
    4911914.65,
    4833435.05
  ]
}